digraph Tree {
node [shape=box, style="filled, rounded", color="black", fontname=helvetica] ;
edge [fontname=helvetica] ;
0 [label="vot <= 0.29\ngini = 0.86\nsamples = 3000\nvalue = [330, 363, 371, 182, 580, 314, 389, 471]\nclass = 4", fillcolor="#399de50b"] ;
1 [label="local <= 0.19\ngini = 0.86\nsamples = 2743\nvalue = [124, 359, 371, 177, 569, 309, 376, 458]\nclass = 4", fillcolor="#399de50c"] ;
0 -> 1 [labeldistance=2.5, labelangle=45, headlabel="True"] ;
2 [label="vot <= 0.02\ngini = 0.85\nsamples = 2464\nvalue = [119, 161, 370, 171, 555, 289, 363, 436]\nclass = 4", fillcolor="#399de50f"] ;
1 -> 2 ;
3 [label="respect <= 0.03\ngini = 0.76\nsamples = 816\nvalue = [1, 60, 352, 65, 100, 78, 74, 86]\nclass = 2", fillcolor="#47e5395a"] ;
2 -> 3 ;
4 [label="élus <= 0.05\ngini = 0.57\nsamples = 529\nvalue = [0, 29, 335, 29, 40, 25, 5, 66]\nclass = 2", fillcolor="#47e53994"] ;
3 -> 4 ;
5 [label="immigr <= 0.05\ngini = 0.39\nsamples = 407\nvalue = [0, 12, 316, 18, 19, 15, 0, 27]\nclass = 2", fillcolor="#47e539c2"] ;
4 -> 5 ;
6 [label="commun <= 0.01\ngini = 0.31\nsamples = 381\nvalue = [0, 11, 315, 0, 18, 11, 0, 26]\nclass = 2", fillcolor="#47e539d0"] ;
5 -> 6 ;
7 [label="assembl <= 0.08\ngini = 0.21\nsamples = 349\nvalue = [0, 2, 309, 0, 10, 7, 0, 21]\nclass = 2", fillcolor="#47e539e0"] ;
6 -> 7 ;
8 [label="part <= 0.07\ngini = 0.14\nsamples = 323\nvalue = [0, 0, 299, 0, 9, 6, 0, 9]\nclass = 2", fillcolor="#47e539ec"] ;
7 -> 8 ;
9 [label="pay <= 0.01\ngini = 0.08\nsamples = 298\nvalue = [0, 0, 285, 0, 4, 4, 0, 5]\nclass = 2", fillcolor="#47e539f4"] ;
8 -> 9 ;
10 [label="vi <= 0.23\ngini = 0.05\nsamples = 278\nvalue = [0, 0, 271, 0, 0, 3, 0, 4]\nclass = 2", fillcolor="#47e539f8"] ;
9 -> 10 ;
11 [label="grand <= 0.0\ngini = 0.05\nsamples = 258\nvalue = [0, 0, 252, 0, 0, 3, 0, 3]\nclass = 2", fillcolor="#47e539f9"] ;
10 -> 11 ;
12 [label="gini = 0.05\nsamples = 237\nvalue = [0, 0, 231, 0, 0, 3, 0, 3]\nclass = 2", fillcolor="#47e539f8"] ;
11 -> 12 ;
13 [label="gini = 0.0\nsamples = 21\nvalue = [0, 0, 21, 0, 0, 0, 0, 0]\nclass = 2", fillcolor="#47e539ff"] ;
11 -> 13 ;
14 [label="gini = 0.09\nsamples = 20\nvalue = [0, 0, 19, 0, 0, 0, 0, 1]\nclass = 2", fillcolor="#47e539f2"] ;
10 -> 14 ;
15 [label="gini = 0.46\nsamples = 20\nvalue = [0, 0, 14, 0, 4, 1, 0, 1]\nclass = 2", fillcolor="#47e5399f"] ;
9 -> 15 ;
16 [label="gini = 0.61\nsamples = 25\nvalue = [0, 0, 14, 0, 5, 2, 0, 4]\nclass = 2", fillcolor="#47e53973"] ;
8 -> 16 ;
17 [label="gini = 0.63\nsamples = 26\nvalue = [0, 2, 10, 0, 1, 1, 0, 12]\nclass = 7", fillcolor="#e5397220"] ;
7 -> 17 ;
18 [label="gini = 0.78\nsamples = 32\nvalue = [0, 9, 6, 0, 8, 4, 0, 5]\nclass = 1", fillcolor="#c8e5390b"] ;
6 -> 18 ;
19 [label="gini = 0.49\nsamples = 26\nvalue = [0, 1, 1, 18, 1, 4, 0, 1]\nclass = 3", fillcolor="#39e5aca2"] ;
5 -> 19 ;
20 [label="assembl <= 0.14\ngini = 0.81\nsamples = 122\nvalue = [0, 17, 19, 11, 21, 10, 5, 39]\nclass = 7", fillcolor="#e539722d"] ;
4 -> 20 ;
21 [label="élect <= 0.09\ngini = 0.83\nsamples = 102\nvalue = [0, 16, 18, 10, 21, 10, 5, 22]\nclass = 7", fillcolor="#e5397203"] ;
20 -> 21 ;
22 [label="bien <= 0.03\ngini = 0.83\nsamples = 78\nvalue = [0, 13, 15, 10, 19, 9, 5, 7]\nclass = 4", fillcolor="#399de510"] ;
21 -> 22 ;
23 [label="proportionnel <= 0.04\ngini = 0.83\nsamples = 56\nvalue = [0, 13, 14, 8, 6, 7, 3, 5]\nclass = 2", fillcolor="#47e53906"] ;
22 -> 23 ;
24 [label="gini = 0.77\nsamples = 36\nvalue = [0, 9, 13, 3, 5, 3, 2, 1]\nclass = 2", fillcolor="#47e53926"] ;
23 -> 24 ;
25 [label="gini = 0.81\nsamples = 20\nvalue = [0, 4, 1, 5, 1, 4, 1, 4]\nclass = 3", fillcolor="#39e5ac10"] ;
23 -> 25 ;
26 [label="gini = 0.62\nsamples = 22\nvalue = [0, 0, 1, 2, 13, 2, 2, 2]\nclass = 4", fillcolor="#399de58c"] ;
22 -> 26 ;
27 [label="gini = 0.57\nsamples = 24\nvalue = [0, 3, 3, 0, 2, 1, 0, 15]\nclass = 7", fillcolor="#e5397292"] ;
21 -> 27 ;
28 [label="gini = 0.27\nsamples = 20\nvalue = [0, 1, 1, 1, 0, 0, 0, 17]\nclass = 7", fillcolor="#e53972d7"] ;
20 -> 28 ;
29 [label="éduc <= 0.14\ngini = 0.83\nsamples = 287\nvalue = [1, 31, 17, 36, 60, 53, 69, 20]\nclass = 6", fillcolor="#d739e50a"] ;
3 -> 29 ;
30 [label="immigr <= 0.28\ngini = 0.81\nsamples = 228\nvalue = [1, 25, 17, 33, 58, 12, 63, 19]\nclass = 6", fillcolor="#d739e508"] ;
29 -> 30 ;
31 [label="respect <= 0.26\ngini = 0.79\nsamples = 202\nvalue = [1, 25, 17, 9, 58, 12, 61, 19]\nclass = 6", fillcolor="#d739e505"] ;
30 -> 31 ;
32 [label="gen <= 0.15\ngini = 0.79\nsamples = 150\nvalue = [0, 24, 14, 9, 55, 9, 20, 19]\nclass = 4", fillcolor="#399de53f"] ;
31 -> 32 ;
33 [label="assembl <= 0.11\ngini = 0.83\nsamples = 119\nvalue = [0, 23, 13, 9, 29, 9, 18, 18]\nclass = 4", fillcolor="#399de510"] ;
32 -> 33 ;
34 [label="mandat <= 0.13\ngini = 0.82\nsamples = 99\nvalue = [0, 21, 11, 8, 29, 9, 15, 6]\nclass = 4", fillcolor="#399de51a"] ;
33 -> 34 ;
35 [label="loi <= 0.11\ngini = 0.79\nsamples = 79\nvalue = [0, 11, 11, 6, 28, 9, 12, 2]\nclass = 4", fillcolor="#399de53d"] ;
34 -> 35 ;
36 [label="pouvoir <= 0.02\ngini = 0.73\nsamples = 58\nvalue = [0, 6, 10, 4, 26, 7, 4, 1]\nclass = 4", fillcolor="#399de555"] ;
35 -> 36 ;
37 [label="gini = 0.8\nsamples = 37\nvalue = [0, 5, 9, 4, 11, 5, 3, 0]\nclass = 4", fillcolor="#399de512"] ;
36 -> 37 ;
38 [label="gini = 0.47\nsamples = 21\nvalue = [0, 1, 1, 0, 15, 2, 1, 1]\nclass = 4", fillcolor="#399de5ae"] ;
36 -> 38 ;
39 [label="gini = 0.77\nsamples = 21\nvalue = [0, 5, 1, 2, 2, 2, 8, 1]\nclass = 6", fillcolor="#d739e530"] ;
35 -> 39 ;
40 [label="gini = 0.68\nsamples = 20\nvalue = [0, 10, 0, 2, 1, 0, 3, 4]\nclass = 1", fillcolor="#c8e53960"] ;
34 -> 40 ;
41 [label="gini = 0.6\nsamples = 20\nvalue = [0, 2, 2, 1, 0, 0, 3, 12]\nclass = 7", fillcolor="#e5397287"] ;
33 -> 41 ;
42 [label="gini = 0.29\nsamples = 31\nvalue = [0, 1, 1, 0, 26, 0, 2, 1]\nclass = 4", fillcolor="#399de5d3"] ;
32 -> 42 ;
43 [label="loi <= 0.08\ngini = 0.37\nsamples = 52\nvalue = [1, 1, 3, 0, 3, 3, 41, 0]\nclass = 6", fillcolor="#d739e5c6"] ;
31 -> 43 ;
44 [label="gini = 0.5\nsamples = 32\nvalue = [1, 1, 3, 0, 3, 2, 22, 0]\nclass = 6", fillcolor="#d739e5a7"] ;
43 -> 44 ;
45 [label="gini = 0.09\nsamples = 20\nvalue = [0, 0, 0, 0, 0, 1, 19, 0]\nclass = 6", fillcolor="#d739e5f2"] ;
43 -> 45 ;
46 [label="gini = 0.14\nsamples = 26\nvalue = [0, 0, 0, 24, 0, 0, 2, 0]\nclass = 3", fillcolor="#39e5acea"] ;
30 -> 46 ;
47 [label="éduc <= 0.28\ngini = 0.49\nsamples = 59\nvalue = [0, 6, 0, 3, 2, 41, 6, 1]\nclass = 5", fillcolor="#5639e5a8"] ;
29 -> 47 ;
48 [label="gini = 0.7\nsamples = 33\nvalue = [0, 6, 0, 3, 2, 16, 5, 1]\nclass = 5", fillcolor="#5639e55e"] ;
47 -> 48 ;
49 [label="gini = 0.07\nsamples = 26\nvalue = [0, 0, 0, 0, 0, 25, 1, 0]\nclass = 5", fillcolor="#5639e5f5"] ;
47 -> 49 ;
50 [label="respect <= 0.22\ngini = 0.82\nsamples = 1648\nvalue = [118, 101, 18, 106, 455, 211, 289, 350]\nclass = 4", fillcolor="#399de515"] ;
2 -> 50 ;
51 [label="éduc <= 0.21\ngini = 0.81\nsamples = 1343\nvalue = [114, 96, 18, 88, 395, 179, 110, 343]\nclass = 4", fillcolor="#399de50d"] ;
50 -> 51 ;
52 [label="assembl <= 0.1\ngini = 0.79\nsamples = 1212\nvalue = [113, 95, 18, 86, 380, 81, 106, 333]\nclass = 4", fillcolor="#399de50e"] ;
51 -> 52 ;
53 [label="immigr <= 0.26\ngini = 0.8\nsamples = 901\nvalue = [99, 85, 17, 75, 332, 68, 84, 141]\nclass = 4", fillcolor="#399de540"] ;
52 -> 53 ;
54 [label="gen <= 0.04\ngini = 0.78\nsamples = 844\nvalue = [98, 84, 17, 27, 327, 67, 84, 140]\nclass = 4", fillcolor="#399de544"] ;
53 -> 54 ;
55 [label="appliqu <= 0.28\ngini = 0.84\nsamples = 569\nvalue = [77, 73, 17, 24, 145, 53, 65, 115]\nclass = 4", fillcolor="#399de511"] ;
54 -> 55 ;
56 [label="vot <= 0.2\ngini = 0.83\nsamples = 540\nvalue = [77, 72, 16, 22, 145, 53, 40, 115]\nclass = 4", fillcolor="#399de512"] ;
55 -> 56 ;
57 [label="mond <= 0.04\ngini = 0.81\nsamples = 423\nvalue = [23, 62, 12, 20, 128, 47, 32, 99]\nclass = 4", fillcolor="#399de517"] ;
56 -> 57 ;
58 [label="local <= 0.09\ngini = 0.83\nsamples = 326\nvalue = [20, 55, 11, 17, 70, 44, 24, 85]\nclass = 7", fillcolor="#e539720f"] ;
57 -> 58 ;
59 [label="respect <= 0.05\ngini = 0.81\nsamples = 252\nvalue = [18, 17, 10, 13, 62, 40, 20, 72]\nclass = 7", fillcolor="#e539720d"] ;
58 -> 59 ;
60 [label="représent <= 0.02\ngini = 0.75\nsamples = 115\nvalue = [12, 9, 9, 10, 20, 3, 2, 50]\nclass = 7", fillcolor="#e5397251"] ;
59 -> 60 ;
61 [label="vot <= 0.13\ngini = 0.84\nsamples = 52\nvalue = [10, 8, 6, 7, 12, 1, 1, 7]\nclass = 4", fillcolor="#399de50c"] ;
60 -> 61 ;
62 [label="gini = 0.81\nsamples = 32\nvalue = [1, 6, 5, 3, 10, 1, 1, 5]\nclass = 4", fillcolor="#399de527"] ;
61 -> 62 ;
63 [label="gini = 0.72\nsamples = 20\nvalue = [9, 2, 1, 4, 2, 0, 0, 2]\nclass = 0", fillcolor="#e5813950"] ;
61 -> 63 ;
64 [label="pay <= 0.1\ngini = 0.51\nsamples = 63\nvalue = [2, 1, 3, 3, 8, 2, 1, 43]\nclass = 7", fillcolor="#e53972a2"] ;
60 -> 64 ;
65 [label="élect <= 0.07\ngini = 0.31\nsamples = 40\nvalue = [2, 1, 3, 0, 0, 1, 0, 33]\nclass = 7", fillcolor="#e53972cf"] ;
64 -> 65 ;
66 [label="gini = 0.54\nsamples = 20\nvalue = [2, 1, 3, 0, 0, 1, 0, 13]\nclass = 7", fillcolor="#e5397296"] ;
65 -> 66 ;
67 [label="gini = 0.0\nsamples = 20\nvalue = [0, 0, 0, 0, 0, 0, 0, 20]\nclass = 7", fillcolor="#e53972ff"] ;
65 -> 67 ;
68 [label="gini = 0.67\nsamples = 23\nvalue = [0, 0, 0, 3, 8, 1, 1, 10]\nclass = 7", fillcolor="#e5397222"] ;
64 -> 68 ;
69 [label="éduc <= 0.11\ngini = 0.78\nsamples = 137\nvalue = [6, 8, 1, 3, 42, 37, 18, 22]\nclass = 4", fillcolor="#399de50d"] ;
59 -> 69 ;
70 [label="compt <= 0.04\ngini = 0.78\nsamples = 103\nvalue = [5, 6, 1, 3, 36, 15, 15, 22]\nclass = 4", fillcolor="#399de52c"] ;
69 -> 70 ;
71 [label="sanction <= 0.06\ngini = 0.81\nsamples = 62\nvalue = [2, 5, 1, 2, 11, 12, 12, 17]\nclass = 7", fillcolor="#e5397219"] ;
70 -> 71 ;
72 [label="représent <= 0.08\ngini = 0.77\nsamples = 41\nvalue = [2, 3, 1, 2, 10, 9, 0, 14]\nclass = 7", fillcolor="#e5397221"] ;
71 -> 72 ;
73 [label="gini = 0.71\nsamples = 20\nvalue = [2, 1, 1, 0, 5, 9, 0, 2]\nclass = 5", fillcolor="#5639e544"] ;
72 -> 73 ;
74 [label="gini = 0.6\nsamples = 21\nvalue = [0, 2, 0, 2, 5, 0, 0, 12]\nclass = 7", fillcolor="#e5397270"] ;
72 -> 74 ;
75 [label="gini = 0.62\nsamples = 21\nvalue = [0, 2, 0, 0, 1, 3, 12, 3]\nclass = 6", fillcolor="#d739e57f"] ;
71 -> 75 ;
76 [label="immigr <= 0.05\ngini = 0.6\nsamples = 41\nvalue = [3, 1, 0, 1, 25, 3, 3, 5]\nclass = 4", fillcolor="#399de58e"] ;
70 -> 76 ;
77 [label="gini = 0.75\nsamples = 20\nvalue = [3, 1, 0, 0, 8, 1, 3, 4]\nclass = 4", fillcolor="#399de540"] ;
76 -> 77 ;
78 [label="gini = 0.33\nsamples = 21\nvalue = [0, 0, 0, 1, 17, 2, 0, 1]\nclass = 4", fillcolor="#399de5c9"] ;
76 -> 78 ;
79 [label="gini = 0.54\nsamples = 34\nvalue = [1, 2, 0, 0, 6, 22, 3, 0]\nclass = 5", fillcolor="#5639e592"] ;
69 -> 79 ;
80 [label="commun <= 0.08\ngini = 0.68\nsamples = 74\nvalue = [2, 38, 1, 4, 8, 4, 4, 13]\nclass = 1", fillcolor="#c8e53969"] ;
58 -> 80 ;
81 [label="pouvoir <= 0.07\ngini = 0.75\nsamples = 45\nvalue = [1, 17, 1, 3, 3, 3, 4, 13]\nclass = 1", fillcolor="#c8e53920"] ;
80 -> 81 ;
82 [label="gini = 0.65\nsamples = 24\nvalue = [0, 13, 1, 3, 0, 2, 1, 4]\nclass = 1", fillcolor="#c8e53973"] ;
81 -> 82 ;
83 [label="gini = 0.73\nsamples = 21\nvalue = [1, 4, 0, 0, 3, 1, 3, 9]\nclass = 7", fillcolor="#e539724b"] ;
81 -> 83 ;
84 [label="gini = 0.44\nsamples = 29\nvalue = [1, 21, 0, 1, 5, 1, 0, 0]\nclass = 1", fillcolor="#c8e539aa"] ;
80 -> 84 ;
85 [label="pay <= 0.06\ngini = 0.61\nsamples = 97\nvalue = [3, 7, 1, 3, 58, 3, 8, 14]\nclass = 4", fillcolor="#399de587"] ;
57 -> 85 ;
86 [label="gini = 0.79\nsamples = 36\nvalue = [3, 6, 1, 1, 11, 1, 4, 9]\nclass = 4", fillcolor="#399de513"] ;
85 -> 86 ;
87 [label="problem <= 0.03\ngini = 0.39\nsamples = 61\nvalue = [0, 1, 0, 2, 47, 2, 4, 5]\nclass = 4", fillcolor="#399de5bf"] ;
85 -> 87 ;
88 [label="gini = 0.65\nsamples = 24\nvalue = [0, 0, 0, 2, 13, 2, 3, 4]\nclass = 4", fillcolor="#399de573"] ;
87 -> 88 ;
89 [label="gini = 0.15\nsamples = 37\nvalue = [0, 1, 0, 0, 34, 0, 1, 1]\nclass = 4", fillcolor="#399de5ea"] ;
87 -> 89 ;
90 [label="blanc <= 0.15\ngini = 0.73\nsamples = 117\nvalue = [54, 10, 4, 2, 17, 6, 8, 16]\nclass = 0", fillcolor="#e581395e"] ;
56 -> 90 ;
91 [label="voir <= 0.02\ngini = 0.82\nsamples = 83\nvalue = [25, 10, 4, 2, 15, 6, 8, 13]\nclass = 0", fillcolor="#e5813926"] ;
90 -> 91 ;
92 [label="vi <= 0.02\ngini = 0.78\nsamples = 56\nvalue = [22, 8, 4, 1, 3, 4, 7, 7]\nclass = 0", fillcolor="#e581394a"] ;
91 -> 92 ;
93 [label="gini = 0.67\nsamples = 30\nvalue = [16, 0, 4, 1, 1, 2, 4, 2]\nclass = 0", fillcolor="#e5813976"] ;
92 -> 93 ;
94 [label="gini = 0.79\nsamples = 26\nvalue = [6, 8, 0, 0, 2, 2, 3, 5]\nclass = 1", fillcolor="#c8e5391a"] ;
92 -> 94 ;
95 [label="gini = 0.73\nsamples = 27\nvalue = [3, 2, 0, 1, 12, 2, 1, 6]\nclass = 4", fillcolor="#399de549"] ;
91 -> 95 ;
96 [label="gini = 0.26\nsamples = 34\nvalue = [29, 0, 0, 0, 2, 0, 0, 3]\nclass = 0", fillcolor="#e58139d6"] ;
90 -> 96 ;
97 [label="gini = 0.25\nsamples = 29\nvalue = [0, 1, 1, 2, 0, 0, 25, 0]\nclass = 6", fillcolor="#d739e5d9"] ;
55 -> 97 ;
98 [label="faudr <= 0.02\ngini = 0.54\nsamples = 275\nvalue = [21, 11, 0, 3, 182, 14, 19, 25]\nclass = 4", fillcolor="#399de5a0"] ;
54 -> 98 ;
99 [label="obligatoir <= 0.07\ngini = 0.68\nsamples = 161\nvalue = [15, 8, 0, 3, 85, 13, 18, 19]\nclass = 4", fillcolor="#399de577"] ;
98 -> 99 ;
100 [label="public <= 0.09\ngini = 0.51\nsamples = 97\nvalue = [4, 5, 0, 1, 66, 2, 9, 10]\nclass = 4", fillcolor="#399de5a4"] ;
99 -> 100 ;
101 [label="grand <= 0.01\ngini = 0.34\nsamples = 72\nvalue = [4, 1, 0, 0, 58, 0, 3, 6]\nclass = 4", fillcolor="#399de5c9"] ;
100 -> 101 ;
102 [label="gini = 0.57\nsamples = 32\nvalue = [3, 1, 0, 0, 20, 0, 3, 5]\nclass = 4", fillcolor="#399de58e"] ;
101 -> 102 ;
103 [label="social <= 0.06\ngini = 0.1\nsamples = 40\nvalue = [1, 0, 0, 0, 38, 0, 0, 1]\nclass = 4", fillcolor="#399de5f2"] ;
101 -> 103 ;
104 [label="gini = 0.19\nsamples = 20\nvalue = [1, 0, 0, 0, 18, 0, 0, 1]\nclass = 4", fillcolor="#399de5e4"] ;
103 -> 104 ;
105 [label="gini = 0.0\nsamples = 20\nvalue = [0, 0, 0, 0, 20, 0, 0, 0]\nclass = 4", fillcolor="#399de5ff"] ;
103 -> 105 ;
106 [label="gini = 0.78\nsamples = 25\nvalue = [0, 4, 0, 1, 8, 2, 6, 4]\nclass = 4", fillcolor="#399de51b"] ;
100 -> 106 ;
107 [label="contr <= 0.08\ngini = 0.81\nsamples = 64\nvalue = [11, 3, 0, 2, 19, 11, 9, 9]\nclass = 4", fillcolor="#399de526"] ;
99 -> 107 ;
108 [label="éduc <= 0.08\ngini = 0.82\nsamples = 41\nvalue = [9, 2, 0, 2, 6, 10, 6, 6]\nclass = 5", fillcolor="#5639e508"] ;
107 -> 108 ;
109 [label="gini = 0.76\nsamples = 20\nvalue = [8, 1, 0, 2, 2, 0, 4, 3]\nclass = 0", fillcolor="#e5813940"] ;
108 -> 109 ;
110 [label="gini = 0.7\nsamples = 21\nvalue = [1, 1, 0, 0, 4, 10, 2, 3]\nclass = 5", fillcolor="#5639e55a"] ;
108 -> 110 ;
111 [label="gini = 0.64\nsamples = 23\nvalue = [2, 1, 0, 0, 13, 1, 3, 3]\nclass = 4", fillcolor="#399de57f"] ;
107 -> 111 ;
112 [label="rendr <= 0.12\ngini = 0.27\nsamples = 114\nvalue = [6, 3, 0, 0, 97, 1, 1, 6]\nclass = 4", fillcolor="#399de5d7"] ;
98 -> 112 ;
113 [label="sénat <= 0.05\ngini = 0.16\nsamples = 94\nvalue = [2, 1, 0, 0, 86, 1, 0, 4]\nclass = 4", fillcolor="#399de5e8"] ;
112 -> 113 ;
114 [label="blanc <= 0.07\ngini = 0.05\nsamples = 74\nvalue = [2, 0, 0, 0, 72, 0, 0, 0]\nclass = 4", fillcolor="#399de5f8"] ;
113 -> 114 ;
115 [label="gini = 0.0\nsamples = 54\nvalue = [0, 0, 0, 0, 54, 0, 0, 0]\nclass = 4", fillcolor="#399de5ff"] ;
114 -> 115 ;
116 [label="gini = 0.18\nsamples = 20\nvalue = [2, 0, 0, 0, 18, 0, 0, 0]\nclass = 4", fillcolor="#399de5e3"] ;
114 -> 116 ;
117 [label="gini = 0.46\nsamples = 20\nvalue = [0, 1, 0, 0, 14, 1, 0, 4]\nclass = 4", fillcolor="#399de59f"] ;
113 -> 117 ;
118 [label="gini = 0.64\nsamples = 20\nvalue = [4, 2, 0, 0, 11, 0, 1, 2]\nclass = 4", fillcolor="#399de570"] ;
112 -> 118 ;
119 [label="doivent <= 0.02\ngini = 0.28\nsamples = 57\nvalue = [1, 1, 0, 48, 5, 1, 0, 1]\nclass = 3", fillcolor="#39e5acd3"] ;
53 -> 119 ;
120 [label="gini = 0.05\nsamples = 37\nvalue = [0, 0, 0, 36, 1, 0, 0, 0]\nclass = 3", fillcolor="#39e5acf8"] ;
119 -> 120 ;
121 [label="gini = 0.59\nsamples = 20\nvalue = [1, 1, 0, 12, 4, 1, 0, 1]\nclass = 3", fillcolor="#39e5ac7f"] ;
119 -> 121 ;
122 [label="représent <= 0.08\ngini = 0.58\nsamples = 311\nvalue = [14, 10, 1, 11, 48, 13, 22, 192]\nclass = 7", fillcolor="#e539728c"] ;
52 -> 122 ;
123 [label="assembl <= 0.3\ngini = 0.74\nsamples = 145\nvalue = [9, 7, 1, 9, 31, 8, 17, 63]\nclass = 7", fillcolor="#e5397248"] ;
122 -> 123 ;
124 [label="élect <= 0.12\ngini = 0.79\nsamples = 117\nvalue = [9, 7, 1, 9, 30, 8, 15, 38]\nclass = 7", fillcolor="#e5397217"] ;
123 -> 124 ;
125 [label="lois <= 0.07\ngini = 0.8\nsamples = 93\nvalue = [6, 6, 1, 9, 30, 7, 15, 19]\nclass = 4", fillcolor="#399de526"] ;
124 -> 125 ;
126 [label="proportionnel <= 0.07\ngini = 0.76\nsamples = 58\nvalue = [6, 6, 1, 6, 25, 6, 2, 6]\nclass = 4", fillcolor="#399de55d"] ;
125 -> 126 ;
127 [label="gini = 0.58\nsamples = 37\nvalue = [2, 0, 1, 4, 23, 4, 1, 2]\nclass = 4", fillcolor="#399de593"] ;
126 -> 127 ;
128 [label="gini = 0.82\nsamples = 21\nvalue = [4, 6, 0, 2, 2, 2, 1, 4]\nclass = 1", fillcolor="#c8e5391e"] ;
126 -> 128 ;
129 [label="gini = 0.7\nsamples = 35\nvalue = [0, 0, 0, 3, 5, 1, 13, 13]\nclass = 6", fillcolor="#d739e500"] ;
125 -> 129 ;
130 [label="gini = 0.35\nsamples = 24\nvalue = [3, 1, 0, 0, 0, 1, 0, 19]\nclass = 7", fillcolor="#e53972c2"] ;
124 -> 130 ;
131 [label="gini = 0.2\nsamples = 28\nvalue = [0, 0, 0, 0, 1, 0, 2, 25]\nclass = 7", fillcolor="#e53972e2"] ;
123 -> 131 ;
132 [label="pens <= 0.09\ngini = 0.38\nsamples = 166\nvalue = [5, 3, 0, 2, 17, 5, 5, 129]\nclass = 7", fillcolor="#e53972c0"] ;
122 -> 132 ;
133 [label="respect <= 0.08\ngini = 0.31\nsamples = 144\nvalue = [4, 3, 0, 2, 8, 4, 4, 119]\nclass = 7", fillcolor="#e53972d0"] ;
132 -> 133 ;
134 [label="mair <= 0.08\ngini = 0.17\nsamples = 88\nvalue = [3, 0, 0, 2, 2, 1, 0, 80]\nclass = 7", fillcolor="#e53972e7"] ;
133 -> 134 ;
135 [label="demand <= 0.05\ngini = 0.06\nsamples = 65\nvalue = [0, 0, 0, 0, 2, 0, 0, 63]\nclass = 7", fillcolor="#e53972f7"] ;
134 -> 135 ;
136 [label="gini = 0.0\nsamples = 45\nvalue = [0, 0, 0, 0, 0, 0, 0, 45]\nclass = 7", fillcolor="#e53972ff"] ;
135 -> 136 ;
137 [label="gini = 0.18\nsamples = 20\nvalue = [0, 0, 0, 0, 2, 0, 0, 18]\nclass = 7", fillcolor="#e53972e3"] ;
135 -> 137 ;
138 [label="gini = 0.43\nsamples = 23\nvalue = [3, 0, 0, 2, 0, 1, 0, 17]\nclass = 7", fillcolor="#e53972b2"] ;
134 -> 138 ;
139 [label="particip <= 0.05\ngini = 0.49\nsamples = 56\nvalue = [1, 3, 0, 0, 6, 3, 4, 39]\nclass = 7", fillcolor="#e53972a8"] ;
133 -> 139 ;
140 [label="gini = 0.14\nsamples = 28\nvalue = [1, 0, 0, 0, 0, 1, 0, 26]\nclass = 7", fillcolor="#e53972ec"] ;
139 -> 140 ;
141 [label="gini = 0.7\nsamples = 28\nvalue = [0, 3, 0, 0, 6, 2, 4, 13]\nclass = 7", fillcolor="#e5397251"] ;
139 -> 141 ;
142 [label="gini = 0.62\nsamples = 22\nvalue = [1, 0, 0, 0, 9, 1, 1, 10]\nclass = 7", fillcolor="#e5397214"] ;
132 -> 142 ;
143 [label="éduc <= 0.25\ngini = 0.42\nsamples = 131\nvalue = [1, 1, 0, 2, 15, 98, 4, 10]\nclass = 5", fillcolor="#5639e5b6"] ;
51 -> 143 ;
144 [label="mair <= 0.05\ngini = 0.66\nsamples = 49\nvalue = [1, 1, 0, 1, 12, 25, 3, 6]\nclass = 5", fillcolor="#5639e55a"] ;
143 -> 144 ;
145 [label="gini = 0.7\nsamples = 28\nvalue = [1, 0, 0, 0, 12, 8, 2, 5]\nclass = 4", fillcolor="#399de533"] ;
144 -> 145 ;
146 [label="gini = 0.34\nsamples = 21\nvalue = [0, 1, 0, 1, 0, 17, 1, 1]\nclass = 5", fillcolor="#5639e5cc"] ;
144 -> 146 ;
147 [label="permettr <= 0.01\ngini = 0.2\nsamples = 82\nvalue = [0, 0, 0, 1, 3, 73, 1, 4]\nclass = 5", fillcolor="#5639e5e2"] ;
143 -> 147 ;
148 [label="obligatoir <= 0.11\ngini = 0.06\nsamples = 62\nvalue = [0, 0, 0, 0, 1, 60, 0, 1]\nclass = 5", fillcolor="#5639e5f7"] ;
147 -> 148 ;
149 [label="gini = 0.0\nsamples = 42\nvalue = [0, 0, 0, 0, 0, 42, 0, 0]\nclass = 5", fillcolor="#5639e5ff"] ;
148 -> 149 ;
150 [label="gini = 0.19\nsamples = 20\nvalue = [0, 0, 0, 0, 1, 18, 0, 1]\nclass = 5", fillcolor="#5639e5e4"] ;
148 -> 150 ;
151 [label="gini = 0.54\nsamples = 20\nvalue = [0, 0, 0, 1, 2, 13, 1, 3]\nclass = 5", fillcolor="#5639e596"] ;
147 -> 151 ;
152 [label="éduc <= 0.22\ngini = 0.6\nsamples = 305\nvalue = [4, 5, 0, 18, 60, 32, 179, 7]\nclass = 6", fillcolor="#d739e57c"] ;
50 -> 152 ;
153 [label="lois <= 0.07\ngini = 0.55\nsamples = 281\nvalue = [4, 5, 0, 17, 57, 14, 177, 7]\nclass = 6", fillcolor="#d739e589"] ;
152 -> 153 ;
154 [label="vi <= 0.04\ngini = 0.68\nsamples = 159\nvalue = [4, 5, 0, 13, 46, 12, 74, 5]\nclass = 6", fillcolor="#d739e53f"] ;
153 -> 154 ;
155 [label="respect <= 0.25\ngini = 0.54\nsamples = 73\nvalue = [2, 1, 0, 6, 7, 7, 48, 2]\nclass = 6", fillcolor="#d739e59e"] ;
154 -> 155 ;
156 [label="gini = 0.78\nsamples = 20\nvalue = [2, 1, 0, 1, 6, 3, 6, 1]\nclass = 4", fillcolor="#399de500"] ;
155 -> 156 ;
157 [label="immigr <= 0.08\ngini = 0.36\nsamples = 53\nvalue = [0, 0, 0, 5, 1, 4, 42, 1]\nclass = 6", fillcolor="#d739e5c5"] ;
155 -> 157 ;
158 [label="gini = 0.22\nsamples = 33\nvalue = [0, 0, 0, 0, 1, 3, 29, 0]\nclass = 6", fillcolor="#d739e5dd"] ;
157 -> 158 ;
159 [label="gini = 0.51\nsamples = 20\nvalue = [0, 0, 0, 5, 0, 1, 13, 1]\nclass = 6", fillcolor="#d739e588"] ;
157 -> 159 ;
160 [label="respect <= 0.32\ngini = 0.69\nsamples = 86\nvalue = [2, 4, 0, 7, 39, 5, 26, 3]\nclass = 4", fillcolor="#399de537"] ;
154 -> 160 ;
161 [label="pens <= 0.03\ngini = 0.66\nsamples = 63\nvalue = [2, 4, 0, 4, 34, 5, 11, 3]\nclass = 4", fillcolor="#399de571"] ;
160 -> 161 ;
162 [label="gini = 0.76\nsamples = 37\nvalue = [2, 3, 0, 4, 14, 2, 10, 2]\nclass = 4", fillcolor="#399de526"] ;
161 -> 162 ;
163 [label="gini = 0.39\nsamples = 26\nvalue = [0, 1, 0, 0, 20, 3, 1, 1]\nclass = 4", fillcolor="#399de5bc"] ;
161 -> 163 ;
164 [label="gini = 0.51\nsamples = 23\nvalue = [0, 0, 0, 3, 5, 0, 15, 0]\nclass = 6", fillcolor="#d739e58e"] ;
160 -> 164 ;
165 [label="déjà <= 0.09\ngini = 0.28\nsamples = 122\nvalue = [0, 0, 0, 4, 11, 2, 103, 2]\nclass = 6", fillcolor="#d739e5d3"] ;
153 -> 165 ;
166 [label="enfant <= 0.09\ngini = 0.19\nsamples = 99\nvalue = [0, 0, 0, 3, 4, 2, 89, 1]\nclass = 6", fillcolor="#d739e5e4"] ;
165 -> 166 ;
167 [label="respect <= 0.26\ngini = 0.1\nsamples = 76\nvalue = [0, 0, 0, 1, 2, 0, 72, 1]\nclass = 6", fillcolor="#d739e5f1"] ;
166 -> 167 ;
168 [label="gini = 0.34\nsamples = 20\nvalue = [0, 0, 0, 1, 2, 0, 16, 1]\nclass = 6", fillcolor="#d739e5c6"] ;
167 -> 168 ;
169 [label="gini = 0.0\nsamples = 56\nvalue = [0, 0, 0, 0, 0, 0, 56, 0]\nclass = 6", fillcolor="#d739e5ff"] ;
167 -> 169 ;
170 [label="gini = 0.43\nsamples = 23\nvalue = [0, 0, 0, 2, 2, 2, 17, 0]\nclass = 6", fillcolor="#d739e5b6"] ;
166 -> 170 ;
171 [label="gini = 0.53\nsamples = 23\nvalue = [0, 0, 0, 1, 7, 0, 14, 1]\nclass = 6", fillcolor="#d739e570"] ;
165 -> 171 ;
172 [label="gini = 0.41\nsamples = 24\nvalue = [0, 0, 0, 1, 3, 18, 2, 0]\nclass = 5", fillcolor="#5639e5b6"] ;
152 -> 172 ;
173 [label="éduc <= 0.25\ngini = 0.48\nsamples = 279\nvalue = [5, 198, 1, 6, 14, 20, 13, 22]\nclass = 1", fillcolor="#c8e539af"] ;
1 -> 173 ;
174 [label="local <= 0.27\ngini = 0.41\nsamples = 256\nvalue = [5, 194, 1, 6, 14, 2, 13, 21]\nclass = 1", fillcolor="#c8e539bc"] ;
173 -> 174 ;
175 [label="pay <= 0.04\ngini = 0.62\nsamples = 107\nvalue = [4, 63, 1, 4, 9, 2, 8, 16]\nclass = 1", fillcolor="#c8e53984"] ;
174 -> 175 ;
176 [label="part <= 0.05\ngini = 0.3\nsamples = 47\nvalue = [2, 39, 1, 0, 0, 1, 1, 3]\nclass = 1", fillcolor="#c8e539d1"] ;
175 -> 176 ;
177 [label="gini = 0.07\nsamples = 27\nvalue = [0, 26, 1, 0, 0, 0, 0, 0]\nclass = 1", fillcolor="#c8e539f5"] ;
176 -> 177 ;
178 [label="gini = 0.54\nsamples = 20\nvalue = [2, 13, 0, 0, 0, 1, 1, 3]\nclass = 1", fillcolor="#c8e53996"] ;
176 -> 178 ;
179 [label="assembl <= 0.02\ngini = 0.75\nsamples = 60\nvalue = [2, 24, 0, 4, 9, 1, 7, 13]\nclass = 1", fillcolor="#c8e5393c"] ;
175 -> 179 ;
180 [label="gini = 0.63\nsamples = 33\nvalue = [2, 19, 0, 3, 3, 1, 4, 1]\nclass = 1", fillcolor="#c8e53984"] ;
179 -> 180 ;
181 [label="gini = 0.71\nsamples = 27\nvalue = [0, 5, 0, 1, 6, 0, 3, 12]\nclass = 7", fillcolor="#e5397249"] ;
179 -> 181 ;
182 [label="assembl <= 0.1\ngini = 0.22\nsamples = 149\nvalue = [1, 131, 0, 2, 5, 0, 5, 5]\nclass = 1", fillcolor="#c8e539df"] ;
174 -> 182 ;
183 [label="local <= 0.3\ngini = 0.15\nsamples = 125\nvalue = [1, 115, 0, 1, 4, 0, 4, 0]\nclass = 1", fillcolor="#c8e539ea"] ;
182 -> 183 ;
184 [label="gini = 0.34\nsamples = 24\nvalue = [1, 19, 0, 0, 4, 0, 0, 0]\nclass = 1", fillcolor="#c8e539bf"] ;
183 -> 184 ;
185 [label="respect <= 0.16\ngini = 0.09\nsamples = 101\nvalue = [0, 96, 0, 1, 0, 0, 4, 0]\nclass = 1", fillcolor="#c8e539f2"] ;
183 -> 185 ;
186 [label="gini = 0.0\nsamples = 78\nvalue = [0, 78, 0, 0, 0, 0, 0, 0]\nclass = 1", fillcolor="#c8e539ff"] ;
185 -> 186 ;
187 [label="gini = 0.36\nsamples = 23\nvalue = [0, 18, 0, 1, 0, 0, 4, 0]\nclass = 1", fillcolor="#c8e539bc"] ;
185 -> 187 ;
188 [label="gini = 0.51\nsamples = 24\nvalue = [0, 16, 0, 1, 1, 0, 1, 5]\nclass = 1", fillcolor="#c8e53994"] ;
182 -> 188 ;
189 [label="gini = 0.36\nsamples = 23\nvalue = [0, 4, 0, 0, 0, 18, 0, 1]\nclass = 5", fillcolor="#5639e5bc"] ;
173 -> 189 ;
190 [label="vot <= 0.37\ngini = 0.35\nsamples = 257\nvalue = [206, 4, 0, 5, 11, 5, 13, 13]\nclass = 0", fillcolor="#e58139ca"] ;
0 -> 190 [labeldistance=2.5, labelangle=-45, headlabel="False"] ;
191 [label="social <= 0.02\ngini = 0.58\nsamples = 128\nvalue = [80, 4, 0, 4, 11, 5, 11, 13]\nclass = 0", fillcolor="#e5813995"] ;
190 -> 191 ;
192 [label="respect <= 0.16\ngini = 0.41\nsamples = 88\nvalue = [67, 1, 0, 2, 4, 2, 9, 3]\nclass = 0", fillcolor="#e58139bb"] ;
191 -> 192 ;
193 [label="aid <= 0.01\ngini = 0.32\nsamples = 67\nvalue = [55, 1, 0, 1, 4, 2, 1, 3]\nclass = 0", fillcolor="#e58139ce"] ;
192 -> 193 ;
194 [label="élus <= 0.05\ngini = 0.12\nsamples = 47\nvalue = [44, 0, 0, 0, 0, 1, 0, 2]\nclass = 0", fillcolor="#e58139ee"] ;
193 -> 194 ;
195 [label="gini = 0.0\nsamples = 27\nvalue = [27, 0, 0, 0, 0, 0, 0, 0]\nclass = 0", fillcolor="#e58139ff"] ;
194 -> 195 ;
196 [label="gini = 0.26\nsamples = 20\nvalue = [17, 0, 0, 0, 0, 1, 0, 2]\nclass = 0", fillcolor="#e58139d4"] ;
194 -> 196 ;
197 [label="gini = 0.64\nsamples = 20\nvalue = [11, 1, 0, 1, 4, 1, 1, 1]\nclass = 0", fillcolor="#e5813970"] ;
193 -> 197 ;
198 [label="gini = 0.53\nsamples = 21\nvalue = [12, 0, 0, 1, 0, 0, 8, 0]\nclass = 0", fillcolor="#e581394e"] ;
192 -> 198 ;
199 [label="exempl <= 0.01\ngini = 0.78\nsamples = 40\nvalue = [13, 3, 0, 2, 7, 3, 2, 10]\nclass = 0", fillcolor="#e581391a"] ;
191 -> 199 ;
200 [label="gini = 0.65\nsamples = 20\nvalue = [11, 2, 0, 2, 1, 0, 1, 3]\nclass = 0", fillcolor="#e5813978"] ;
199 -> 200 ;
201 [label="gini = 0.75\nsamples = 20\nvalue = [2, 1, 0, 0, 6, 3, 1, 7]\nclass = 7", fillcolor="#e5397212"] ;
199 -> 201 ;
202 [label="respect <= 0.13\ngini = 0.05\nsamples = 129\nvalue = [126, 0, 0, 1, 0, 0, 2, 0]\nclass = 0", fillcolor="#e58139f9"] ;
190 -> 202 ;
203 [label="gini = 0.0\nsamples = 109\nvalue = [109, 0, 0, 0, 0, 0, 0, 0]\nclass = 0", fillcolor="#e58139ff"] ;
202 -> 203 ;
204 [label="gini = 0.26\nsamples = 20\nvalue = [17, 0, 0, 1, 0, 0, 2, 0]\nclass = 0", fillcolor="#e58139d4"] ;
202 -> 204 ;
}